digraph Tree {
node [shape=box, style="rounded", color="black", fontname="helvetica"] ;
edge [fontname="helvetica"] ;
0 [label="temp_1 <= 59.5\nsquared_error = 145.7\nsamples = 162\nvalue = 62.7"] ;
1 [label="average <= 46.9\nsquared_error = 42.6\nsamples = 63\nvalue = 51.2"] ;
0 -> 1 [labeldistance=2.5, labelangle=45, headlabel="True"] ;
2 [label="temp_1 <= 44.5\nsquared_error = 17.0\nsamples = 17\nvalue = 42.9"] ;
1 -> 2 ;
3 [label="week_Mon <= 0.5\nsquared_error = 4.4\nsamples = 8\nvalue = 41.0"] ;
2 -> 3 ;
4 [label="friend <= 35.5\nsquared_error = 2.7\nsamples = 7\nvalue = 40.6"] ;
3 -> 4 ;
5 [label="squared_error = 0.0\nsamples = 1\nvalue = 44.0"] ;
4 -> 5 ;
6 [label="day <= 10.5\nsquared_error = 0.7\nsamples = 6\nvalue = 40.0"] ;
4 -> 6 ;
7 [label="squared_error = 0.0\nsamples = 2\nvalue = 41.0"] ;
6 -> 7 ;
8 [label="temp_2 <= 43.5\nsquared_error = 0.5\nsamples = 4\nvalue = 39.6"] ;
6 -> 8 ;
9 [label="squared_error = 0.0\nsamples = 2\nvalue = 39.0"] ;
8 -> 9 ;
10 [label="week_Sat <= 0.5\nsquared_error = 0.2\nsamples = 2\nvalue = 40.2"] ;
8 -> 10 ;
11 [label="squared_error = 0.0\nsamples = 1\nvalue = 40.0"] ;
10 -> 11 ;
12 [label="squared_error = 0.0\nsamples = 1\nvalue = 41.0"] ;
10 -> 12 ;
13 [label="squared_error = 0.0\nsamples = 1\nvalue = 46.0"] ;
3 -> 13 ;
14 [label="forecast_acc <= 46.5\nsquared_error = 22.2\nsamples = 9\nvalue = 45.0"] ;
2 -> 14 ;
15 [label="squared_error = 0.0\nsamples = 1\nvalue = 57.0"] ;
14 -> 15 ;
16 [label="average <= 45.5\nsquared_error = 11.0\nsamples = 8\nvalue = 44.0"] ;
14 -> 16 ;
17 [label="squared_error = 0.0\nsamples = 2\nvalue = 40.0"] ;
16 -> 17 ;
18 [label="average <= 46.1\nsquared_error = 4.5\nsamples = 6\nvalue = 46.0"] ;
16 -> 18 ;
19 [label="friend <= 45.0\nsquared_error = 0.2\nsamples = 2\nvalue = 44.3"] ;
18 -> 19 ;
20 [label="squared_error = 0.0\nsamples = 1\nvalue = 45.0"] ;
19 -> 20 ;
21 [label="squared_error = 0.0\nsamples = 1\nvalue = 44.0"] ;
19 -> 21 ;
22 [label="forecast_acc <= 49.0\nsquared_error = 4.4\nsamples = 4\nvalue = 47.0"] ;
18 -> 22 ;
23 [label="average <= 46.8\nsquared_error = 0.2\nsamples = 2\nvalue = 45.3"] ;
22 -> 23 ;
24 [label="squared_error = 0.0\nsamples = 1\nvalue = 45.0"] ;
23 -> 24 ;
25 [label="squared_error = 0.0\nsamples = 1\nvalue = 46.0"] ;
23 -> 25 ;
26 [label="week_Tues <= 0.5\nsquared_error = 0.2\nsamples = 2\nvalue = 49.5"] ;
22 -> 26 ;
27 [label="squared_error = 0.0\nsamples = 1\nvalue = 50.0"] ;
26 -> 27 ;
28 [label="squared_error = 0.0\nsamples = 1\nvalue = 49.0"] ;
26 -> 28 ;
29 [label="temp_1 <= 55.5\nsquared_error = 19.5\nsamples = 46\nvalue = 54.1"] ;
1 -> 29 ;
30 [label="day <= 4.0\nsquared_error = 7.7\nsamples = 29\nvalue = 51.9"] ;
29 -> 30 ;
31 [label="week_Sat <= 0.5\nsquared_error = 1.7\nsamples = 3\nvalue = 46.8"] ;
30 -> 31 ;
32 [label="squared_error = 0.0\nsamples = 2\nvalue = 46.0"] ;
31 -> 32 ;
33 [label="squared_error = 0.0\nsamples = 1\nvalue = 49.0"] ;
31 -> 33 ;
34 [label="forecast_acc <= 51.5\nsquared_error = 5.8\nsamples = 26\nvalue = 52.3"] ;
30 -> 34 ;
35 [label="temp_2 <= 54.5\nsquared_error = 5.3\nsamples = 12\nvalue = 51.4"] ;
34 -> 35 ;
36 [label="week_Tues <= 0.5\nsquared_error = 3.4\nsamples = 8\nvalue = 52.4"] ;
35 -> 36 ;
37 [label="average <= 49.1\nsquared_error = 1.8\nsamples = 7\nvalue = 52.8"] ;
36 -> 37 ;
38 [label="average <= 47.6\nsquared_error = 0.8\nsamples = 5\nvalue = 53.5"] ;
37 -> 38 ;
39 [label="week_Mon <= 0.5\nsquared_error = 0.2\nsamples = 2\nvalue = 54.3"] ;
38 -> 39 ;
40 [label="squared_error = 0.0\nsamples = 1\nvalue = 55.0"] ;
39 -> 40 ;
41 [label="squared_error = 0.0\nsamples = 1\nvalue = 54.0"] ;
39 -> 41 ;
42 [label="day <= 23.0\nsquared_error = 0.4\nsamples = 3\nvalue = 53.0"] ;
38 -> 42 ;
43 [label="temp_1 <= 50.5\nsquared_error = 0.2\nsamples = 2\nvalue = 52.8"] ;
42 -> 43 ;
44 [label="squared_error = 0.0\nsamples = 1\nvalue = 53.0"] ;
43 -> 44 ;
45 [label="squared_error = 0.0\nsamples = 1\nvalue = 52.0"] ;
43 -> 45 ;
46 [label="squared_error = 0.0\nsamples = 1\nvalue = 54.0"] ;
42 -> 46 ;
47 [label="squared_error = 0.0\nsamples = 2\nvalue = 51.0"] ;
37 -> 47 ;
48 [label="squared_error = 0.0\nsamples = 1\nvalue = 48.0"] ;
36 -> 48 ;
49 [label="week_Mon <= 0.5\nsquared_error = 3.9\nsamples = 4\nvalue = 49.7"] ;
35 -> 49 ;
50 [label="month <= 6.0\nsquared_error = 1.0\nsamples = 3\nvalue = 49.0"] ;
49 -> 50 ;
51 [label="squared_error = 0.0\nsamples = 2\nvalue = 48.0"] ;
50 -> 51 ;
52 [label="squared_error = 0.0\nsamples = 1\nvalue = 50.0"] ;
50 -> 52 ;
53 [label="squared_error = 0.0\nsamples = 1\nvalue = 54.0"] ;
49 -> 53 ;
54 [label="forecast_acc <= 57.0\nsquared_error = 5.2\nsamples = 14\nvalue = 53.0"] ;
34 -> 54 ;
55 [label="average <= 50.6\nsquared_error = 4.3\nsamples = 11\nvalue = 53.4"] ;
54 -> 55 ;
56 [label="friend <= 38.0\nsquared_error = 1.9\nsamples = 6\nvalue = 52.5"] ;
55 -> 56 ;
57 [label="month <= 6.0\nsquared_error = 0.2\nsamples = 2\nvalue = 54.2"] ;
56 -> 57 ;
58 [label="squared_error = 0.0\nsamples = 1\nvalue = 54.0"] ;
57 -> 58 ;
59 [label="squared_error = 0.0\nsamples = 1\nvalue = 55.0"] ;
57 -> 59 ;
60 [label="week_Tues <= 0.5\nsquared_error = 0.7\nsamples = 4\nvalue = 51.7"] ;
56 -> 60 ;
61 [label="temp_1 <= 52.5\nsquared_error = 0.2\nsamples = 3\nvalue = 51.5"] ;
60 -> 61 ;
62 [label="squared_error = 0.0\nsamples = 2\nvalue = 52.0"] ;
61 -> 62 ;
63 [label="squared_error = 0.0\nsamples = 1\nvalue = 51.0"] ;
61 -> 63 ;
64 [label="squared_error = 0.0\nsamples = 1\nvalue = 54.0"] ;
60 -> 64 ;
65 [label="friend <= 48.5\nsquared_error = 4.2\nsamples = 5\nvalue = 55.2"] ;
55 -> 65 ;
66 [label="week_Tues <= 0.5\nsquared_error = 2.2\nsamples = 2\nvalue = 58.5"] ;
65 -> 66 ;
67 [label="squared_error = 0.0\nsamples = 1\nvalue = 57.0"] ;
66 -> 67 ;
68 [label="squared_error = 0.0\nsamples = 1\nvalue = 60.0"] ;
66 -> 68 ;
69 [label="temp_1 <= 53.5\nsquared_error = 0.1\nsamples = 3\nvalue = 54.2"] ;
65 -> 69 ;
70 [label="squared_error = 0.0\nsamples = 2\nvalue = 54.0"] ;
69 -> 70 ;
71 [label="squared_error = 0.0\nsamples = 1\nvalue = 55.0"] ;
69 -> 71 ;
72 [label="friend <= 54.5\nsquared_error = 1.7\nsamples = 3\nvalue = 50.2"] ;
54 -> 72 ;
73 [label="squared_error = 0.0\nsamples = 1\nvalue = 49.0"] ;
72 -> 73 ;
74 [label="day <= 13.5\nsquared_error = 0.2\nsamples = 2\nvalue = 51.5"] ;
72 -> 74 ;
75 [label="squared_error = 0.0\nsamples = 1\nvalue = 52.0"] ;
74 -> 75 ;
76 [label="squared_error = 0.0\nsamples = 1\nvalue = 51.0"] ;
74 -> 76 ;
77 [label="week_Wed <= 0.5\nsquared_error = 15.6\nsamples = 17\nvalue = 58.2"] ;
29 -> 77 ;
78 [label="average <= 51.8\nsquared_error = 13.5\nsamples = 14\nvalue = 59.7"] ;
77 -> 78 ;
79 [label="squared_error = 0.0\nsamples = 4\nvalue = 55.0"] ;
78 -> 79 ;
80 [label="day <= 5.5\nsquared_error = 7.7\nsamples = 10\nvalue = 61.4"] ;
78 -> 80 ;
81 [label="month <= 7.0\nsquared_error = 0.2\nsamples = 2\nvalue = 64.7"] ;
80 -> 81 ;
82 [label="squared_error = 0.0\nsamples = 1\nvalue = 64.0"] ;
81 -> 82 ;
83 [label="squared_error = 0.0\nsamples = 1\nvalue = 65.0"] ;
81 -> 83 ;
84 [label="day <= 17.0\nsquared_error = 5.9\nsamples = 8\nvalue = 60.5"] ;
80 -> 84 ;
85 [label="forecast_acc <= 55.0\nsquared_error = 3.1\nsamples = 5\nvalue = 59.0"] ;
84 -> 85 ;
86 [label="squared_error = 0.0\nsamples = 1\nvalue = 55.0"] ;
85 -> 86 ;
87 [label="week_Thurs <= 0.5\nsquared_error = 0.6\nsamples = 4\nvalue = 59.7"] ;
85 -> 87 ;
88 [label="week_Sun <= 0.5\nsquared_error = 0.2\nsamples = 3\nvalue = 60.3"] ;
87 -> 88 ;
89 [label="squared_error = 0.0\nsamples = 2\nvalue = 60.0"] ;
88 -> 89 ;
90 [label="squared_error = 0.0\nsamples = 1\nvalue = 61.0"] ;
88 -> 90 ;
91 [label="squared_error = 0.0\nsamples = 1\nvalue = 59.0"] ;
87 -> 91 ;
92 [label="week_Tues <= 0.5\nsquared_error = 0.5\nsamples = 3\nvalue = 63.0"] ;
84 -> 92 ;
93 [label="month <= 6.5\nsquared_error = 0.2\nsamples = 2\nvalue = 62.7"] ;
92 -> 93 ;
94 [label="squared_error = 0.0\nsamples = 1\nvalue = 63.0"] ;
93 -> 94 ;
95 [label="squared_error = 0.0\nsamples = 1\nvalue = 62.0"] ;
93 -> 95 ;
96 [label="squared_error = 0.0\nsamples = 1\nvalue = 64.0"] ;
92 -> 96 ;
97 [label="day <= 12.5\nsquared_error = 3.4\nsamples = 3\nvalue = 54.8"] ;
77 -> 97 ;
98 [label="month <= 7.0\nsquared_error = 0.8\nsamples = 2\nvalue = 56.5"] ;
97 -> 98 ;
99 [label="squared_error = 0.0\nsamples = 1\nvalue = 55.0"] ;
98 -> 99 ;
100 [label="squared_error = 0.0\nsamples = 1\nvalue = 57.0"] ;
98 -> 100 ;
101 [label="squared_error = 0.0\nsamples = 1\nvalue = 53.0"] ;
97 -> 101 ;
102 [label="temp_1 <= 67.5\nsquared_error = 66.8\nsamples = 99\nvalue = 70.4"] ;
0 -> 102 [labeldistance=2.5, labelangle=-45, headlabel="False"] ;
103 [label="average <= 60.8\nsquared_error = 23.5\nsamples = 42\nvalue = 63.9"] ;
102 -> 103 ;
104 [label="day <= 27.5\nsquared_error = 13.7\nsamples = 19\nvalue = 60.7"] ;
103 -> 104 ;
105 [label="temp_2 <= 59.5\nsquared_error = 8.2\nsamples = 17\nvalue = 59.8"] ;
104 -> 105 ;
106 [label="average <= 57.8\nsquared_error = 7.7\nsamples = 7\nvalue = 62.4"] ;
105 -> 106 ;
107 [label="average <= 52.6\nsquared_error = 3.7\nsamples = 6\nvalue = 61.6"] ;
106 -> 107 ;
108 [label="temp_1 <= 60.5\nsquared_error = 0.2\nsamples = 3\nvalue = 59.7"] ;
107 -> 108 ;
109 [label="squared_error = 0.0\nsamples = 1\nvalue = 59.0"] ;
108 -> 109 ;
110 [label="squared_error = 0.0\nsamples = 2\nvalue = 60.0"] ;
108 -> 110 ;
111 [label="temp_2 <= 57.5\nsquared_error = 1.5\nsamples = 3\nvalue = 63.0"] ;
107 -> 111 ;
112 [label="squared_error = 0.0\nsamples = 1\nvalue = 65.0"] ;
111 -> 112 ;
113 [label="forecast_acc <= 57.0\nsquared_error = 0.2\nsamples = 2\nvalue = 62.3"] ;
111 -> 113 ;
114 [label="squared_error = 0.0\nsamples = 1\nvalue = 63.0"] ;
113 -> 114 ;
115 [label="squared_error = 0.0\nsamples = 1\nvalue = 62.0"] ;
113 -> 115 ;
116 [label="squared_error = 0.0\nsamples = 1\nvalue = 68.0"] ;
106 -> 116 ;
117 [label="friend <= 47.0\nsquared_error = 3.8\nsamples = 10\nvalue = 58.6"] ;
105 -> 117 ;
118 [label="month <= 7.0\nsquared_error = 2.2\nsamples = 3\nvalue = 56.2"] ;
117 -> 118 ;
119 [label="squared_error = 0.0\nsamples = 1\nvalue = 55.0"] ;
118 -> 119 ;
120 [label="squared_error = 0.0\nsamples = 2\nvalue = 58.0"] ;
118 -> 120 ;
121 [label="day <= 12.5\nsquared_error = 1.1\nsamples = 7\nvalue = 59.6"] ;
117 -> 121 ;
122 [label="day <= 7.5\nsquared_error = 0.6\nsamples = 3\nvalue = 58.6"] ;
121 -> 122 ;
123 [label="squared_error = 0.0\nsamples = 1\nvalue = 57.0"] ;
122 -> 123 ;
124 [label="squared_error = 0.0\nsamples = 2\nvalue = 59.0"] ;
122 -> 124 ;
125 [label="average <= 59.5\nsquared_error = 0.2\nsamples = 4\nvalue = 60.3"] ;
121 -> 125 ;
126 [label="squared_error = 0.0\nsamples = 2\nvalue = 61.0"] ;
125 -> 126 ;
127 [label="squared_error = 0.0\nsamples = 2\nvalue = 60.0"] ;
125 -> 127 ;
128 [label="squared_error = 0.0\nsamples = 2\nvalue = 68.0"] ;
104 -> 128 ;
129 [label="temp_2 <= 78.0\nsquared_error = 17.3\nsamples = 23\nvalue = 66.3"] ;
103 -> 129 ;
130 [label="friend <= 54.5\nsquared_error = 13.4\nsamples = 22\nvalue = 66.8"] ;
129 -> 130 ;
131 [label="friend <= 51.5\nsquared_error = 3.6\nsamples = 2\nvalue = 60.3"] ;
130 -> 131 ;
132 [label="squared_error = 0.0\nsamples = 1\nvalue = 59.0"] ;
131 -> 132 ;
133 [label="squared_error = 0.0\nsamples = 1\nvalue = 63.0"] ;
131 -> 133 ;
134 [label="temp_2 <= 64.5\nsquared_error = 10.2\nsamples = 20\nvalue = 67.4"] ;
130 -> 134 ;
135 [label="friend <= 71.0\nsquared_error = 9.0\nsamples = 8\nvalue = 68.9"] ;
134 -> 135 ;
136 [label="day <= 13.5\nsquared_error = 2.0\nsamples = 3\nvalue = 71.6"] ;
135 -> 136 ;
137 [label="squared_error = 0.0\nsamples = 1\nvalue = 75.0"] ;
136 -> 137 ;
138 [label="squared_error = 0.0\nsamples = 2\nvalue = 71.0"] ;
136 -> 138 ;
139 [label="friend <= 77.0\nsquared_error = 4.4\nsamples = 5\nvalue = 66.8"] ;
135 -> 139 ;
140 [label="day <= 24.0\nsquared_error = 1.0\nsamples = 3\nvalue = 65.2"] ;
139 -> 140 ;
141 [label="squared_error = 0.0\nsamples = 1\nvalue = 66.0"] ;
140 -> 141 ;
142 [label="squared_error = 0.0\nsamples = 2\nvalue = 64.0"] ;
140 -> 142 ;
143 [label="temp_1 <= 64.0\nsquared_error = 1.7\nsamples = 2\nvalue = 68.8"] ;
139 -> 143 ;
144 [label="squared_error = 0.0\nsamples = 1\nvalue = 68.0"] ;
143 -> 144 ;
145 [label="squared_error = 0.0\nsamples = 1\nvalue = 71.0"] ;
143 -> 145 ;
146 [label="forecast_acc <= 74.5\nsquared_error = 7.4\nsamples = 12\nvalue = 66.0"] ;
134 -> 146 ;
147 [label="average <= 69.2\nsquared_error = 5.1\nsamples = 10\nvalue = 64.9"] ;
146 -> 147 ;
148 [label="forecast_acc <= 69.5\nsquared_error = 3.4\nsamples = 9\nvalue = 65.3"] ;
147 -> 148 ;
149 [label="temp_1 <= 60.5\nsquared_error = 3.1\nsamples = 5\nvalue = 64.2"] ;
148 -> 149 ;
150 [label="squared_error = 0.0\nsamples = 1\nvalue = 68.0"] ;
149 -> 150 ;
151 [label="forecast_acc <= 67.5\nsquared_error = 0.2\nsamples = 4\nvalue = 63.4"] ;
149 -> 151 ;
152 [label="squared_error = 0.0\nsamples = 2\nvalue = 64.0"] ;
151 -> 152 ;
153 [label="squared_error = 0.0\nsamples = 2\nvalue = 63.0"] ;
151 -> 153 ;
154 [label="temp_2 <= 66.5\nsquared_error = 0.9\nsamples = 4\nvalue = 66.5"] ;
148 -> 154 ;
155 [label="average <= 67.6\nsquared_error = 0.2\nsamples = 2\nvalue = 65.7"] ;
154 -> 155 ;
156 [label="squared_error = 0.0\nsamples = 1\nvalue = 66.0"] ;
155 -> 156 ;
157 [label="squared_error = 0.0\nsamples = 1\nvalue = 65.0"] ;
155 -> 157 ;
158 [label="day <= 22.5\nsquared_error = 0.2\nsamples = 2\nvalue = 67.3"] ;
154 -> 158 ;
159 [label="squared_error = 0.0\nsamples = 1\nvalue = 68.0"] ;
158 -> 159 ;
160 [label="squared_error = 0.0\nsamples = 1\nvalue = 67.0"] ;
158 -> 160 ;
161 [label="squared_error = 0.0\nsamples = 1\nvalue = 60.0"] ;
147 -> 161 ;
162 [label="day <= 6.0\nsquared_error = 2.6\nsamples = 2\nvalue = 68.8"] ;
146 -> 162 ;
163 [label="squared_error = 0.0\nsamples = 1\nvalue = 68.0"] ;
162 -> 163 ;
164 [label="squared_error = 0.0\nsamples = 1\nvalue = 72.0"] ;
162 -> 164 ;
165 [label="squared_error = 0.0\nsamples = 1\nvalue = 57.0"] ;
129 -> 165 ;
166 [label="forecast_under <= 76.5\nsquared_error = 44.2\nsamples = 57\nvalue = 75.3"] ;
102 -> 166 ;
167 [label="temp_1 <= 88.0\nsquared_error = 33.9\nsamples = 44\nvalue = 73.1"] ;
166 -> 167 ;
168 [label="week_Sat <= 0.5\nsquared_error = 28.8\nsamples = 42\nvalue = 72.5"] ;
167 -> 168 ;
169 [label="week_Mon <= 0.5\nsquared_error = 27.2\nsamples = 35\nvalue = 73.6"] ;
168 -> 169 ;
170 [label="day <= 10.5\nsquared_error = 23.3\nsamples = 30\nvalue = 74.3"] ;
169 -> 170 ;
171 [label="forecast_acc <= 65.5\nsquared_error = 26.6\nsamples = 12\nvalue = 72.5"] ;
170 -> 171 ;
172 [label="month <= 4.5\nsquared_error = 21.6\nsamples = 3\nvalue = 64.7"] ;
171 -> 172 ;
173 [label="squared_error = 0.0\nsamples = 1\nvalue = 71.0"] ;
172 -> 173 ;
174 [label="average <= 62.8\nsquared_error = 2.2\nsamples = 2\nvalue = 61.5"] ;
172 -> 174 ;
175 [label="squared_error = 0.0\nsamples = 1\nvalue = 60.0"] ;
174 -> 175 ;
176 [label="squared_error = 0.0\nsamples = 1\nvalue = 63.0"] ;
174 -> 176 ;
177 [label="month <= 8.0\nsquared_error = 12.9\nsamples = 9\nvalue = 74.1"] ;
171 -> 177 ;
178 [label="friend <= 56.5\nsquared_error = 4.7\nsamples = 7\nvalue = 75.7"] ;
177 -> 178 ;
179 [label="squared_error = 0.0\nsamples = 1\nvalue = 80.0"] ;
178 -> 179 ;
180 [label="day <= 7.0\nsquared_error = 0.8\nsamples = 6\nvalue = 74.8"] ;
178 -> 180 ;
181 [label="month <= 6.5\nsquared_error = 0.6\nsamples = 4\nvalue = 75.4"] ;
180 -> 181 ;
182 [label="day <= 2.0\nsquared_error = 0.2\nsamples = 2\nvalue = 74.5"] ;
181 -> 182 ;
183 [label="squared_error = 0.0\nsamples = 1\nvalue = 75.0"] ;
182 -> 183 ;
184 [label="squared_error = 0.0\nsamples = 1\nvalue = 74.0"] ;
182 -> 184 ;
185 [label="squared_error = 0.0\nsamples = 2\nvalue = 76.0"] ;
181 -> 185 ;
186 [label="squared_error = 0.0\nsamples = 2\nvalue = 74.0"] ;
180 -> 186 ;
187 [label="temp_2 <= 67.5\nsquared_error = 6.8\nsamples = 2\nvalue = 69.5"] ;
177 -> 187 ;
188 [label="squared_error = 0.0\nsamples = 1\nvalue = 74.0"] ;
187 -> 188 ;
189 [label="squared_error = 0.0\nsamples = 1\nvalue = 68.0"] ;
187 -> 189 ;
190 [label="month <= 5.5\nsquared_error = 16.8\nsamples = 18\nvalue = 75.7"] ;
170 -> 190 ;
191 [label="average <= 58.9\nsquared_error = 6.8\nsamples = 6\nvalue = 79.1"] ;
190 -> 191 ;
192 [label="week_Thurs <= 0.5\nsquared_error = 4.0\nsamples = 2\nvalue = 75.0"] ;
191 -> 192 ;
193 [label="squared_error = 0.0\nsamples = 1\nvalue = 77.0"] ;
192 -> 193 ;
194 [label="squared_error = 0.0\nsamples = 1\nvalue = 73.0"] ;
192 -> 194 ;
195 [label="friend <= 76.0\nsquared_error = 1.3\nsamples = 4\nvalue = 80.3"] ;
191 -> 195 ;
196 [label="friend <= 66.5\nsquared_error = 0.2\nsamples = 3\nvalue = 81.2"] ;
195 -> 196 ;
197 [label="squared_error = 0.0\nsamples = 2\nvalue = 81.0"] ;
196 -> 197 ;
198 [label="squared_error = 0.0\nsamples = 1\nvalue = 82.0"] ;
196 -> 198 ;
199 [label="squared_error = 0.0\nsamples = 1\nvalue = 79.0"] ;
195 -> 199 ;
200 [label="forecast_under <= 71.5\nsquared_error = 12.1\nsamples = 12\nvalue = 73.8"] ;
190 -> 200 ;
201 [label="forecast_acc <= 74.0\nsquared_error = 8.1\nsamples = 5\nvalue = 71.2"] ;
200 -> 201 ;
202 [label="week_Thurs <= 0.5\nsquared_error = 0.2\nsamples = 2\nvalue = 67.5"] ;
201 -> 202 ;
203 [label="squared_error = 0.0\nsamples = 1\nvalue = 67.0"] ;
202 -> 203 ;
204 [label="squared_error = 0.0\nsamples = 1\nvalue = 68.0"] ;
202 -> 204 ;
205 [label="average <= 71.2\nsquared_error = 2.0\nsamples = 3\nvalue = 73.0"] ;
201 -> 205 ;
206 [label="average <= 70.9\nsquared_error = 0.9\nsamples = 2\nvalue = 72.3"] ;
205 -> 206 ;
207 [label="squared_error = 0.0\nsamples = 1\nvalue = 73.0"] ;
206 -> 207 ;
208 [label="squared_error = 0.0\nsamples = 1\nvalue = 71.0"] ;
206 -> 208 ;
209 [label="squared_error = 0.0\nsamples = 1\nvalue = 75.0"] ;
205 -> 209 ;
210 [label="day <= 29.0\nsquared_error = 8.0\nsamples = 7\nvalue = 75.3"] ;
200 -> 210 ;
211 [label="average <= 76.4\nsquared_error = 3.9\nsamples = 5\nvalue = 76.7"] ;
210 -> 211 ;
212 [label="month <= 8.5\nsquared_error = 2.6\nsamples = 4\nvalue = 75.8"] ;
211 -> 212 ;
213 [label="squared_error = 0.0\nsamples = 3\nvalue = 75.0"] ;
212 -> 213 ;
214 [label="squared_error = 0.0\nsamples = 1\nvalue = 79.0"] ;
212 -> 214 ;
215 [label="squared_error = 0.0\nsamples = 1\nvalue = 79.0"] ;
211 -> 215 ;
216 [label="week_Thurs <= 0.5\nsquared_error = 2.0\nsamples = 2\nvalue = 72.0"] ;
210 -> 216 ;
217 [label="squared_error = 0.0\nsamples = 1\nvalue = 70.0"] ;
216 -> 217 ;
218 [label="squared_error = 0.0\nsamples = 1\nvalue = 73.0"] ;
216 -> 218 ;
219 [label="forecast_acc <= 76.5\nsquared_error = 21.5\nsamples = 5\nvalue = 68.2"] ;
169 -> 219 ;
220 [label="forecast_acc <= 65.5\nsquared_error = 10.8\nsamples = 3\nvalue = 65.5"] ;
219 -> 220 ;
221 [label="squared_error = 0.0\nsamples = 1\nvalue = 60.0"] ;
220 -> 221 ;
222 [label="friend <= 82.5\nsquared_error = 0.9\nsamples = 2\nvalue = 67.3"] ;
220 -> 222 ;
223 [label="squared_error = 0.0\nsamples = 1\nvalue = 66.0"] ;
222 -> 223 ;
224 [label="squared_error = 0.0\nsamples = 1\nvalue = 68.0"] ;
222 -> 224 ;
225 [label="forecast_acc <= 78.0\nsquared_error = 0.2\nsamples = 2\nvalue = 73.5"] ;
219 -> 225 ;
226 [label="squared_error = 0.0\nsamples = 1\nvalue = 73.0"] ;
225 -> 226 ;
227 [label="squared_error = 0.0\nsamples = 1\nvalue = 74.0"] ;
225 -> 227 ;
228 [label="friend <= 80.0\nsquared_error = 11.5\nsamples = 7\nvalue = 68.2"] ;
168 -> 228 ;
229 [label="forecast_acc <= 77.0\nsquared_error = 4.7\nsamples = 5\nvalue = 66.2"] ;
228 -> 229 ;
230 [label="friend <= 66.5\nsquared_error = 1.7\nsamples = 4\nvalue = 65.6"] ;
229 -> 230 ;
231 [label="day <= 8.0\nsquared_error = 0.9\nsamples = 2\nvalue = 64.3"] ;
230 -> 231 ;
232 [label="squared_error = 0.0\nsamples = 1\nvalue = 63.0"] ;
231 -> 232 ;
233 [label="squared_error = 0.0\nsamples = 1\nvalue = 65.0"] ;
231 -> 233 ;
234 [label="temp_1 <= 73.0\nsquared_error = 0.2\nsamples = 2\nvalue = 66.5"] ;
230 -> 234 ;
235 [label="squared_error = 0.0\nsamples = 1\nvalue = 67.0"] ;
234 -> 235 ;
236 [label="squared_error = 0.0\nsamples = 1\nvalue = 66.0"] ;
234 -> 236 ;
237 [label="squared_error = 0.0\nsamples = 1\nvalue = 71.0"] ;
229 -> 237 ;
238 [label="forecast_under <= 74.5\nsquared_error = 3.0\nsamples = 2\nvalue = 72.0"] ;
228 -> 238 ;
239 [label="squared_error = 0.0\nsamples = 1\nvalue = 71.0"] ;
238 -> 239 ;
240 [label="squared_error = 0.0\nsamples = 1\nvalue = 75.0"] ;
238 -> 240 ;
241 [label="week_Mon <= 0.5\nsquared_error = 5.6\nsamples = 2\nvalue = 84.3"] ;
167 -> 241 ;
242 [label="squared_error = 0.0\nsamples = 1\nvalue = 81.0"] ;
241 -> 242 ;
243 [label="squared_error = 0.0\nsamples = 1\nvalue = 86.0"] ;
241 -> 243 ;
244 [label="temp_1 <= 77.0\nsquared_error = 26.5\nsamples = 13\nvalue = 80.9"] ;
166 -> 244 ;
245 [label="day <= 9.5\nsquared_error = 7.6\nsamples = 7\nvalue = 76.0"] ;
244 -> 245 ;
246 [label="friend <= 79.5\nsquared_error = 0.2\nsamples = 2\nvalue = 72.5"] ;
245 -> 246 ;
247 [label="squared_error = 0.0\nsamples = 1\nvalue = 73.0"] ;
246 -> 247 ;
248 [label="squared_error = 0.0\nsamples = 1\nvalue = 72.0"] ;
246 -> 248 ;
249 [label="temp_2 <= 82.0\nsquared_error = 5.1\nsamples = 5\nvalue = 77.0"] ;
245 -> 249 ;
250 [label="day <= 14.5\nsquared_error = 2.9\nsamples = 4\nvalue = 77.7"] ;
249 -> 250 ;
251 [label="forecast_acc <= 77.5\nsquared_error = 0.2\nsamples = 2\nvalue = 76.5"] ;
250 -> 251 ;
252 [label="squared_error = 0.0\nsamples = 1\nvalue = 77.0"] ;
251 -> 252 ;
253 [label="squared_error = 0.0\nsamples = 1\nvalue = 76.0"] ;
251 -> 253 ;
254 [label="squared_error = 0.0\nsamples = 2\nvalue = 80.0"] ;
250 -> 254 ;
255 [label="squared_error = 0.0\nsamples = 1\nvalue = 73.0"] ;
249 -> 255 ;
256 [label="temp_2 <= 75.5\nsquared_error = 15.8\nsamples = 6\nvalue = 83.7"] ;
244 -> 256 ;
257 [label="week_Wed <= 0.5\nsquared_error = 2.2\nsamples = 2\nvalue = 80.5"] ;
256 -> 257 ;
258 [label="squared_error = 0.0\nsamples = 1\nvalue = 79.0"] ;
257 -> 258 ;
259 [label="squared_error = 0.0\nsamples = 1\nvalue = 82.0"] ;
257 -> 259 ;
260 [label="temp_2 <= 82.0\nsquared_error = 14.2\nsamples = 4\nvalue = 85.6"] ;
256 -> 260 ;
261 [label="temp_2 <= 78.0\nsquared_error = 1.8\nsamples = 2\nvalue = 87.9"] ;
260 -> 261 ;
262 [label="squared_error = 0.0\nsamples = 1\nvalue = 87.0"] ;
261 -> 262 ;
263 [label="squared_error = 0.0\nsamples = 1\nvalue = 90.0"] ;
261 -> 263 ;
264 [label="week_Tues <= 0.5\nsquared_error = 3.6\nsamples = 2\nvalue = 80.3"] ;
260 -> 264 ;
265 [label="squared_error = 0.0\nsamples = 1\nvalue = 83.0"] ;
264 -> 265 ;
266 [label="squared_error = 0.0\nsamples = 1\nvalue = 79.0"] ;
264 -> 266 ;
}