digraph Tree {
node [shape=box, style="rounded", color="black", fontname="helvetica"] ;
edge [fontname="helvetica"] ;
0 [label="temp_1 <= 59.5\nsquared_error = 139.9\nsamples = 162\nvalue = 62.6"] ;
1 [label="temp_1 <= 47.5\nsquared_error = 30.7\nsamples = 68\nvalue = 50.9"] ;
0 -> 1 [labeldistance=2.5, labelangle=45, headlabel="True"] ;
2 [label="temp_2 <= 50.5\nsquared_error = 18.7\nsamples = 16\nvalue = 44.2"] ;
1 -> 2 ;
3 [label="squared_error = 14.1\nsamples = 14\nvalue = 42.8"] ;
2 -> 3 ;
4 [label="squared_error = 0.2\nsamples = 2\nvalue = 49.6"] ;
2 -> 4 ;
5 [label="temp_2 <= 57.5\nsquared_error = 15.8\nsamples = 52\nvalue = 53.0"] ;
1 -> 5 ;
6 [label="squared_error = 12.3\nsamples = 41\nvalue = 52.1"] ;
5 -> 6 ;
7 [label="squared_error = 8.2\nsamples = 11\nvalue = 57.4"] ;
5 -> 7 ;
8 [label="temp_1 <= 66.5\nsquared_error = 59.9\nsamples = 94\nvalue = 70.4"] ;
0 -> 8 [labeldistance=2.5, labelangle=-45, headlabel="False"] ;
9 [label="temp_2 <= 68.5\nsquared_error = 15.1\nsamples = 30\nvalue = 63.0"] ;
8 -> 9 ;
10 [label="squared_error = 13.6\nsamples = 27\nvalue = 63.6"] ;
9 -> 10 ;
11 [label="squared_error = 2.2\nsamples = 3\nvalue = 58.2"] ;
9 -> 11 ;
12 [label="temp_1 <= 76.5\nsquared_error = 44.5\nsamples = 64\nvalue = 73.7"] ;
8 -> 12 ;
13 [label="squared_error = 27.1\nsamples = 44\nvalue = 71.8"] ;
12 -> 13 ;
14 [label="squared_error = 54.4\nsamples = 20\nvalue = 78.8"] ;
12 -> 14 ;
}