digraph Tree {
node [shape=box, style="rounded", color="black", fontname="helvetica"] ;
edge [fontname="helvetica"] ;
0 [label="temp_1 <= 59.5\nsquared_error = 145.7\nsamples = 162\nvalue = 62.7"] ;
1 [label="temp_1 <= 47.5\nsquared_error = 42.6\nsamples = 63\nvalue = 51.2"] ;
0 -> 1 [labeldistance=2.5, labelangle=45, headlabel="True"] ;
2 [label="day <= 12.5\nsquared_error = 7.9\nsamples = 13\nvalue = 42.0"] ;
1 -> 2 ;
3 [label="temp_2 <= 46.5\nsquared_error = 5.7\nsamples = 7\nvalue = 43.9"] ;
2 -> 3 ;
4 [label="temp_1 <= 44.5\nsquared_error = 2.5\nsamples = 5\nvalue = 43.0"] ;
3 -> 4 ;
5 [label="day <= 9.5\nsquared_error = 2.2\nsamples = 3\nvalue = 42.2"] ;
4 -> 5 ;
6 [label="squared_error = 0.0\nsamples = 2\nvalue = 41.0"] ;
5 -> 6 ;
7 [label="squared_error = 0.0\nsamples = 1\nvalue = 44.0"] ;
5 -> 7 ;
8 [label="day <= 1.5\nsquared_error = 0.2\nsamples = 2\nvalue = 44.3"] ;
4 -> 8 ;
9 [label="squared_error = 0.0\nsamples = 1\nvalue = 45.0"] ;
8 -> 9 ;
10 [label="squared_error = 0.0\nsamples = 1\nvalue = 44.0"] ;
8 -> 10 ;
11 [label="temp_1 <= 46.0\nsquared_error = 2.2\nsamples = 2\nvalue = 47.5"] ;
3 -> 11 ;
12 [label="squared_error = 0.0\nsamples = 1\nvalue = 49.0"] ;
11 -> 12 ;
13 [label="squared_error = 0.0\nsamples = 1\nvalue = 46.0"] ;
11 -> 13 ;
14 [label="day <= 18.5\nsquared_error = 3.7\nsamples = 6\nvalue = 40.3"] ;
2 -> 14 ;
15 [label="day <= 13.5\nsquared_error = 0.2\nsamples = 3\nvalue = 39.4"] ;
14 -> 15 ;
16 [label="squared_error = 0.0\nsamples = 1\nvalue = 40.0"] ;
15 -> 16 ;
17 [label="squared_error = 0.0\nsamples = 2\nvalue = 39.0"] ;
15 -> 17 ;
18 [label="temp_2 <= 40.0\nsquared_error = 6.2\nsamples = 3\nvalue = 41.8"] ;
14 -> 18 ;
19 [label="squared_error = 0.0\nsamples = 1\nvalue = 46.0"] ;
18 -> 19 ;
20 [label="day <= 23.5\nsquared_error = 0.2\nsamples = 2\nvalue = 40.3"] ;
18 -> 20 ;
21 [label="squared_error = 0.0\nsamples = 1\nvalue = 40.0"] ;
20 -> 21 ;
22 [label="squared_error = 0.0\nsamples = 1\nvalue = 41.0"] ;
20 -> 22 ;
23 [label="temp_1 <= 55.5\nsquared_error = 24.8\nsamples = 50\nvalue = 53.5"] ;
1 -> 23 ;
24 [label="day <= 4.5\nsquared_error = 9.4\nsamples = 32\nvalue = 51.7"] ;
23 -> 24 ;
25 [label="temp_2 <= 48.0\nsquared_error = 1.7\nsamples = 3\nvalue = 46.8"] ;
24 -> 25 ;
26 [label="squared_error = 0.0\nsamples = 1\nvalue = 49.0"] ;
25 -> 26 ;
27 [label="squared_error = 0.0\nsamples = 2\nvalue = 46.0"] ;
25 -> 27 ;
28 [label="temp_2 <= 49.5\nsquared_error = 7.9\nsamples = 29\nvalue = 52.1"] ;
24 -> 28 ;
29 [label="day <= 27.5\nsquared_error = 2.5\nsamples = 8\nvalue = 53.3"] ;
28 -> 29 ;
30 [label="temp_1 <= 51.5\nsquared_error = 1.6\nsamples = 7\nvalue = 53.0"] ;
29 -> 30 ;
31 [label="day <= 11.0\nsquared_error = 1.6\nsamples = 5\nvalue = 53.4"] ;
30 -> 31 ;
32 [label="day <= 7.0\nsquared_error = 1.7\nsamples = 2\nvalue = 52.2"] ;
31 -> 32 ;
33 [label="squared_error = 0.0\nsamples = 1\nvalue = 53.0"] ;
32 -> 33 ;
34 [label="squared_error = 0.0\nsamples = 1\nvalue = 50.0"] ;
32 -> 34 ;
35 [label="temp_2 <= 46.5\nsquared_error = 0.1\nsamples = 3\nvalue = 54.2"] ;
31 -> 35 ;
36 [label="squared_error = 0.0\nsamples = 1\nvalue = 55.0"] ;
35 -> 36 ;
37 [label="squared_error = 0.0\nsamples = 2\nvalue = 54.0"] ;
35 -> 37 ;
38 [label="squared_error = 0.0\nsamples = 2\nvalue = 52.0"] ;
30 -> 38 ;
39 [label="squared_error = 0.0\nsamples = 1\nvalue = 57.0"] ;
29 -> 39 ;
40 [label="month <= 1.5\nsquared_error = 9.4\nsamples = 21\nvalue = 51.6"] ;
28 -> 40 ;
41 [label="temp_1 <= 51.0\nsquared_error = 10.2\nsamples = 6\nvalue = 49.4"] ;
40 -> 41 ;
42 [label="temp_2 <= 54.5\nsquared_error = 6.2\nsamples = 3\nvalue = 51.3"] ;
41 -> 42 ;
43 [label="day <= 19.0\nsquared_error = 1.0\nsamples = 2\nvalue = 53.0"] ;
42 -> 43 ;
44 [label="squared_error = 0.0\nsamples = 1\nvalue = 54.0"] ;
43 -> 44 ;
45 [label="squared_error = 0.0\nsamples = 1\nvalue = 52.0"] ;
43 -> 45 ;
46 [label="squared_error = 0.0\nsamples = 1\nvalue = 48.0"] ;
42 -> 46 ;
47 [label="day <= 15.0\nsquared_error = 2.2\nsamples = 3\nvalue = 46.5"] ;
41 -> 47 ;
48 [label="squared_error = 0.0\nsamples = 1\nvalue = 45.0"] ;
47 -> 48 ;
49 [label="squared_error = 0.0\nsamples = 2\nvalue = 48.0"] ;
47 -> 49 ;
50 [label="day <= 22.5\nsquared_error = 6.5\nsamples = 15\nvalue = 52.5"] ;
40 -> 50 ;
51 [label="temp_2 <= 58.0\nsquared_error = 4.4\nsamples = 13\nvalue = 52.0"] ;
50 -> 51 ;
52 [label="day <= 13.5\nsquared_error = 3.4\nsamples = 12\nvalue = 51.8"] ;
51 -> 52 ;
53 [label="day <= 8.0\nsquared_error = 1.9\nsamples = 4\nvalue = 53.3"] ;
52 -> 53 ;
54 [label="squared_error = 0.0\nsamples = 1\nvalue = 51.0"] ;
53 -> 54 ;
55 [label="temp_2 <= 55.5\nsquared_error = 1.0\nsamples = 3\nvalue = 53.8"] ;
53 -> 55 ;
56 [label="temp_1 <= 53.0\nsquared_error = 0.2\nsamples = 2\nvalue = 54.2"] ;
55 -> 56 ;
57 [label="squared_error = 0.0\nsamples = 1\nvalue = 54.0"] ;
56 -> 57 ;
58 [label="squared_error = 0.0\nsamples = 1\nvalue = 55.0"] ;
56 -> 58 ;
59 [label="squared_error = 0.0\nsamples = 1\nvalue = 52.0"] ;
55 -> 59 ;
60 [label="day <= 17.0\nsquared_error = 2.8\nsamples = 8\nvalue = 51.2"] ;
52 -> 60 ;
61 [label="temp_2 <= 53.0\nsquared_error = 0.5\nsamples = 3\nvalue = 49.8"] ;
60 -> 61 ;
62 [label="squared_error = 0.0\nsamples = 1\nvalue = 49.0"] ;
61 -> 62 ;
63 [label="month <= 7.0\nsquared_error = 0.2\nsamples = 2\nvalue = 50.2"] ;
61 -> 63 ;
64 [label="squared_error = 0.0\nsamples = 1\nvalue = 51.0"] ;
63 -> 64 ;
65 [label="squared_error = 0.0\nsamples = 1\nvalue = 50.0"] ;
63 -> 65 ;
66 [label="month <= 6.5\nsquared_error = 2.4\nsamples = 5\nvalue = 52.0"] ;
60 -> 66 ;
67 [label="squared_error = 0.0\nsamples = 2\nvalue = 51.0"] ;
66 -> 67 ;
68 [label="day <= 19.5\nsquared_error = 0.2\nsamples = 3\nvalue = 54.3"] ;
66 -> 68 ;
69 [label="squared_error = 0.0\nsamples = 1\nvalue = 55.0"] ;
68 -> 69 ;
70 [label="squared_error = 0.0\nsamples = 2\nvalue = 54.0"] ;
68 -> 70 ;
71 [label="squared_error = 0.0\nsamples = 1\nvalue = 57.0"] ;
51 -> 71 ;
72 [label="day <= 23.5\nsquared_error = 8.0\nsamples = 2\nvalue = 56.0"] ;
50 -> 72 ;
73 [label="squared_error = 0.0\nsamples = 1\nvalue = 60.0"] ;
72 -> 73 ;
74 [label="squared_error = 0.0\nsamples = 1\nvalue = 54.0"] ;
72 -> 74 ;
75 [label="month <= 11.5\nsquared_error = 35.8\nsamples = 18\nvalue = 57.0"] ;
23 -> 75 ;
76 [label="temp_2 <= 56.5\nsquared_error = 15.6\nsamples = 17\nvalue = 58.2"] ;
75 -> 76 ;
77 [label="temp_2 <= 53.5\nsquared_error = 15.6\nsamples = 8\nvalue = 56.3"] ;
76 -> 77 ;
78 [label="day <= 23.5\nsquared_error = 0.2\nsamples = 2\nvalue = 63.3"] ;
77 -> 78 ;
79 [label="squared_error = 0.0\nsamples = 1\nvalue = 63.0"] ;
78 -> 79 ;
80 [label="squared_error = 0.0\nsamples = 1\nvalue = 64.0"] ;
78 -> 80 ;
81 [label="day <= 21.5\nsquared_error = 1.0\nsamples = 6\nvalue = 54.2"] ;
77 -> 81 ;
82 [label="squared_error = 0.0\nsamples = 5\nvalue = 55.0"] ;
81 -> 82 ;
83 [label="squared_error = 0.0\nsamples = 1\nvalue = 53.0"] ;
81 -> 83 ;
84 [label="temp_2 <= 58.0\nsquared_error = 9.0\nsamples = 9\nvalue = 60.0"] ;
76 -> 84 ;
85 [label="squared_error = 0.0\nsamples = 1\nvalue = 65.0"] ;
84 -> 85 ;
86 [label="month <= 10.5\nsquared_error = 5.6\nsamples = 8\nvalue = 59.2"] ;
84 -> 86 ;
87 [label="month <= 3.5\nsquared_error = 3.1\nsamples = 5\nvalue = 60.4"] ;
86 -> 87 ;
88 [label="squared_error = 0.0\nsamples = 1\nvalue = 64.0"] ;
87 -> 88 ;
89 [label="month <= 7.5\nsquared_error = 1.1\nsamples = 4\nvalue = 59.8"] ;
87 -> 89 ;
90 [label="temp_1 <= 58.5\nsquared_error = 0.2\nsamples = 3\nvalue = 59.4"] ;
89 -> 90 ;
91 [label="squared_error = 0.0\nsamples = 2\nvalue = 60.0"] ;
90 -> 91 ;
92 [label="squared_error = 0.0\nsamples = 1\nvalue = 59.0"] ;
90 -> 92 ;
93 [label="squared_error = 0.0\nsamples = 1\nvalue = 62.0"] ;
89 -> 93 ;
94 [label="temp_2 <= 64.0\nsquared_error = 3.8\nsamples = 3\nvalue = 57.4"] ;
86 -> 94 ;
95 [label="day <= 7.5\nsquared_error = 0.8\nsamples = 2\nvalue = 56.5"] ;
94 -> 95 ;
96 [label="squared_error = 0.0\nsamples = 1\nvalue = 57.0"] ;
95 -> 96 ;
97 [label="squared_error = 0.0\nsamples = 1\nvalue = 55.0"] ;
95 -> 97 ;
98 [label="squared_error = 0.0\nsamples = 1\nvalue = 61.0"] ;
94 -> 98 ;
99 [label="squared_error = 0.0\nsamples = 1\nvalue = 40.0"] ;
75 -> 99 ;
100 [label="temp_1 <= 67.5\nsquared_error = 66.8\nsamples = 99\nvalue = 70.4"] ;
0 -> 100 [labeldistance=2.5, labelangle=-45, headlabel="False"] ;
101 [label="day <= 28.5\nsquared_error = 23.5\nsamples = 42\nvalue = 63.9"] ;
100 -> 101 ;
102 [label="temp_1 <= 66.5\nsquared_error = 21.9\nsamples = 37\nvalue = 63.0"] ;
101 -> 102 ;
103 [label="temp_1 <= 64.5\nsquared_error = 16.0\nsamples = 30\nvalue = 61.8"] ;
102 -> 103 ;
104 [label="month <= 9.5\nsquared_error = 13.9\nsamples = 20\nvalue = 63.0"] ;
103 -> 104 ;
105 [label="month <= 4.5\nsquared_error = 16.2\nsamples = 11\nvalue = 64.8"] ;
104 -> 105 ;
106 [label="day <= 11.0\nsquared_error = 13.2\nsamples = 6\nvalue = 61.3"] ;
105 -> 106 ;
107 [label="temp_2 <= 63.0\nsquared_error = 2.2\nsamples = 2\nvalue = 58.5"] ;
106 -> 107 ;
108 [label="squared_error = 0.0\nsamples = 1\nvalue = 60.0"] ;
107 -> 108 ;
109 [label="squared_error = 0.0\nsamples = 1\nvalue = 57.0"] ;
107 -> 109 ;
110 [label="month <= 3.0\nsquared_error = 12.7\nsamples = 4\nvalue = 62.8"] ;
106 -> 110 ;
111 [label="temp_1 <= 60.5\nsquared_error = 0.2\nsamples = 2\nvalue = 59.5"] ;
110 -> 111 ;
112 [label="squared_error = 0.0\nsamples = 1\nvalue = 59.0"] ;
111 -> 112 ;
113 [label="squared_error = 0.0\nsamples = 1\nvalue = 60.0"] ;
111 -> 113 ;
114 [label="temp_2 <= 59.5\nsquared_error = 4.0\nsamples = 2\nvalue = 66.0"] ;
110 -> 114 ;
115 [label="squared_error = 0.0\nsamples = 1\nvalue = 68.0"] ;
114 -> 115 ;
116 [label="squared_error = 0.0\nsamples = 1\nvalue = 64.0"] ;
114 -> 116 ;
117 [label="temp_2 <= 60.5\nsquared_error = 6.8\nsamples = 5\nvalue = 66.8"] ;
105 -> 117 ;
118 [label="squared_error = 0.0\nsamples = 1\nvalue = 71.0"] ;
117 -> 118 ;
119 [label="day <= 12.0\nsquared_error = 2.9\nsamples = 4\nvalue = 65.8"] ;
117 -> 119 ;
120 [label="squared_error = 0.0\nsamples = 1\nvalue = 68.0"] ;
119 -> 120 ;
121 [label="day <= 19.5\nsquared_error = 2.5\nsamples = 3\nvalue = 65.4"] ;
119 -> 121 ;
122 [label="squared_error = 0.0\nsamples = 1\nvalue = 63.0"] ;
121 -> 122 ;
123 [label="day <= 22.0\nsquared_error = 0.2\nsamples = 2\nvalue = 66.4"] ;
121 -> 123 ;
124 [label="squared_error = 0.0\nsamples = 1\nvalue = 66.0"] ;
123 -> 124 ;
125 [label="squared_error = 0.0\nsamples = 1\nvalue = 67.0"] ;
123 -> 125 ;
126 [label="day <= 9.5\nsquared_error = 3.0\nsamples = 9\nvalue = 60.9"] ;
104 -> 126 ;
127 [label="temp_1 <= 62.0\nsquared_error = 0.2\nsamples = 3\nvalue = 63.3"] ;
126 -> 127 ;
128 [label="squared_error = 0.0\nsamples = 2\nvalue = 63.0"] ;
127 -> 128 ;
129 [label="squared_error = 0.0\nsamples = 1\nvalue = 64.0"] ;
127 -> 129 ;
130 [label="day <= 21.0\nsquared_error = 1.6\nsamples = 6\nvalue = 60.2"] ;
126 -> 130 ;
131 [label="temp_1 <= 60.5\nsquared_error = 0.8\nsamples = 4\nvalue = 59.6"] ;
130 -> 131 ;
132 [label="temp_2 <= 63.0\nsquared_error = 0.2\nsamples = 2\nvalue = 60.2"] ;
131 -> 132 ;
133 [label="squared_error = 0.0\nsamples = 1\nvalue = 61.0"] ;
132 -> 133 ;
134 [label="squared_error = 0.0\nsamples = 1\nvalue = 60.0"] ;
132 -> 134 ;
135 [label="temp_2 <= 62.0\nsquared_error = 0.2\nsamples = 2\nvalue = 58.7"] ;
131 -> 135 ;
136 [label="squared_error = 0.0\nsamples = 1\nvalue = 58.0"] ;
135 -> 136 ;
137 [label="squared_error = 0.0\nsamples = 1\nvalue = 59.0"] ;
135 -> 137 ;
138 [label="day <= 23.5\nsquared_error = 0.2\nsamples = 2\nvalue = 61.7"] ;
130 -> 138 ;
139 [label="squared_error = 0.0\nsamples = 1\nvalue = 62.0"] ;
138 -> 139 ;
140 [label="squared_error = 0.0\nsamples = 1\nvalue = 61.0"] ;
138 -> 140 ;
141 [label="month <= 4.5\nsquared_error = 12.5\nsamples = 10\nvalue = 59.6"] ;
103 -> 141 ;
142 [label="temp_2 <= 70.0\nsquared_error = 3.8\nsamples = 2\nvalue = 56.6"] ;
141 -> 142 ;
143 [label="squared_error = 0.0\nsamples = 1\nvalue = 55.0"] ;
142 -> 143 ;
144 [label="squared_error = 0.0\nsamples = 1\nvalue = 59.0"] ;
142 -> 144 ;
145 [label="day <= 22.5\nsquared_error = 10.6\nsamples = 8\nvalue = 60.9"] ;
141 -> 145 ;
146 [label="day <= 8.5\nsquared_error = 5.5\nsamples = 5\nvalue = 59.6"] ;
145 -> 146 ;
147 [label="squared_error = 0.0\nsamples = 1\nvalue = 65.0"] ;
146 -> 147 ;
148 [label="temp_2 <= 76.0\nsquared_error = 1.6\nsamples = 4\nvalue = 58.9"] ;
146 -> 148 ;
149 [label="day <= 17.5\nsquared_error = 0.2\nsamples = 3\nvalue = 59.6"] ;
148 -> 149 ;
150 [label="squared_error = 0.0\nsamples = 2\nvalue = 60.0"] ;
149 -> 150 ;
151 [label="squared_error = 0.0\nsamples = 1\nvalue = 59.0"] ;
149 -> 151 ;
152 [label="squared_error = 0.0\nsamples = 1\nvalue = 57.0"] ;
148 -> 152 ;
153 [label="month <= 7.5\nsquared_error = 10.8\nsamples = 3\nvalue = 63.5"] ;
145 -> 153 ;
154 [label="day <= 25.5\nsquared_error = 0.9\nsamples = 2\nvalue = 65.3"] ;
153 -> 154 ;
155 [label="squared_error = 0.0\nsamples = 1\nvalue = 66.0"] ;
154 -> 155 ;
156 [label="squared_error = 0.0\nsamples = 1\nvalue = 64.0"] ;
154 -> 156 ;
157 [label="squared_error = 0.0\nsamples = 1\nvalue = 58.0"] ;
153 -> 157 ;
158 [label="temp_2 <= 64.0\nsquared_error = 10.4\nsamples = 7\nvalue = 68.6"] ;
102 -> 158 ;
159 [label="temp_2 <= 61.5\nsquared_error = 4.0\nsamples = 2\nvalue = 73.0"] ;
158 -> 159 ;
160 [label="squared_error = 0.0\nsamples = 1\nvalue = 71.0"] ;
159 -> 160 ;
161 [label="squared_error = 0.0\nsamples = 1\nvalue = 75.0"] ;
159 -> 161 ;
162 [label="temp_2 <= 67.0\nsquared_error = 6.0\nsamples = 5\nvalue = 67.5"] ;
158 -> 162 ;
163 [label="month <= 8.0\nsquared_error = 1.0\nsamples = 2\nvalue = 64.0"] ;
162 -> 163 ;
164 [label="squared_error = 0.0\nsamples = 1\nvalue = 65.0"] ;
163 -> 164 ;
165 [label="squared_error = 0.0\nsamples = 1\nvalue = 63.0"] ;
163 -> 165 ;
166 [label="temp_2 <= 69.0\nsquared_error = 2.2\nsamples = 3\nvalue = 68.7"] ;
162 -> 166 ;
167 [label="squared_error = 0.0\nsamples = 1\nvalue = 72.0"] ;
166 -> 167 ;
168 [label="squared_error = 0.0\nsamples = 2\nvalue = 68.0"] ;
166 -> 168 ;
169 [label="day <= 29.5\nsquared_error = 4.2\nsamples = 5\nvalue = 68.7"] ;
101 -> 169 ;
170 [label="month <= 7.5\nsquared_error = 3.6\nsamples = 2\nvalue = 66.7"] ;
169 -> 170 ;
171 [label="squared_error = 0.0\nsamples = 1\nvalue = 64.0"] ;
170 -> 171 ;
172 [label="squared_error = 0.0\nsamples = 1\nvalue = 68.0"] ;
170 -> 172 ;
173 [label="month <= 4.5\nsquared_error = 2.2\nsamples = 3\nvalue = 69.5"] ;
169 -> 173 ;
174 [label="squared_error = 0.0\nsamples = 2\nvalue = 68.0"] ;
173 -> 174 ;
175 [label="squared_error = 0.0\nsamples = 1\nvalue = 71.0"] ;
173 -> 175 ;
176 [label="temp_1 <= 76.5\nsquared_error = 44.2\nsamples = 57\nvalue = 75.3"] ;
100 -> 176 ;
177 [label="day <= 9.5\nsquared_error = 25.1\nsamples = 38\nvalue = 72.6"] ;
176 -> 177 ;
178 [label="month <= 5.5\nsquared_error = 28.1\nsamples = 16\nvalue = 70.4"] ;
177 -> 178 ;
179 [label="day <= 1.5\nsquared_error = 14.9\nsamples = 5\nvalue = 64.3"] ;
178 -> 179 ;
180 [label="squared_error = 0.0\nsamples = 1\nvalue = 71.0"] ;
179 -> 180 ;
181 [label="temp_1 <= 75.0\nsquared_error = 7.2\nsamples = 4\nvalue = 63.0"] ;
179 -> 181 ;
182 [label="day <= 3.0\nsquared_error = 2.0\nsamples = 3\nvalue = 61.0"] ;
181 -> 182 ;
183 [label="squared_error = 0.0\nsamples = 1\nvalue = 63.0"] ;
182 -> 183 ;
184 [label="squared_error = 0.0\nsamples = 2\nvalue = 60.0"] ;
182 -> 184 ;
185 [label="squared_error = 0.0\nsamples = 1\nvalue = 66.0"] ;
181 -> 185 ;
186 [label="month <= 6.5\nsquared_error = 17.0\nsamples = 11\nvalue = 72.3"] ;
178 -> 186 ;
187 [label="squared_error = 0.0\nsamples = 1\nvalue = 80.0"] ;
186 -> 187 ;
188 [label="month <= 8.5\nsquared_error = 11.2\nsamples = 10\nvalue = 71.4"] ;
186 -> 188 ;
189 [label="day <= 2.5\nsquared_error = 7.7\nsamples = 7\nvalue = 72.9"] ;
188 -> 189 ;
190 [label="squared_error = 0.0\nsamples = 1\nvalue = 76.0"] ;
189 -> 190 ;
191 [label="day <= 5.0\nsquared_error = 6.8\nsamples = 6\nvalue = 72.2"] ;
189 -> 191 ;
192 [label="squared_error = 0.0\nsamples = 1\nvalue = 68.0"] ;
191 -> 192 ;
193 [label="temp_1 <= 70.5\nsquared_error = 2.2\nsamples = 5\nvalue = 73.4"] ;
191 -> 193 ;
194 [label="temp_1 <= 68.5\nsquared_error = 0.8\nsamples = 2\nvalue = 74.5"] ;
193 -> 194 ;
195 [label="squared_error = 0.0\nsamples = 1\nvalue = 74.0"] ;
194 -> 195 ;
196 [label="squared_error = 0.0\nsamples = 1\nvalue = 76.0"] ;
194 -> 196 ;
197 [label="month <= 7.5\nsquared_error = 0.7\nsamples = 3\nvalue = 72.0"] ;
193 -> 197 ;
198 [label="squared_error = 0.0\nsamples = 1\nvalue = 71.0"] ;
197 -> 198 ;
199 [label="temp_1 <= 72.5\nsquared_error = 0.2\nsamples = 2\nvalue = 72.5"] ;
197 -> 199 ;
200 [label="squared_error = 0.0\nsamples = 1\nvalue = 73.0"] ;
199 -> 200 ;
201 [label="squared_error = 0.0\nsamples = 1\nvalue = 72.0"] ;
199 -> 201 ;
202 [label="day <= 7.5\nsquared_error = 5.9\nsamples = 3\nvalue = 68.7"] ;
188 -> 202 ;
203 [label="temp_1 <= 69.0\nsquared_error = 0.2\nsamples = 2\nvalue = 67.6"] ;
202 -> 203 ;
204 [label="squared_error = 0.0\nsamples = 1\nvalue = 68.0"] ;
203 -> 204 ;
205 [label="squared_error = 0.0\nsamples = 1\nvalue = 67.0"] ;
203 -> 205 ;
206 [label="squared_error = 0.0\nsamples = 1\nvalue = 74.0"] ;
202 -> 206 ;
207 [label="month <= 5.5\nsquared_error = 15.0\nsamples = 22\nvalue = 74.5"] ;
177 -> 207 ;
208 [label="month <= 3.5\nsquared_error = 6.3\nsamples = 4\nvalue = 78.0"] ;
207 -> 208 ;
209 [label="squared_error = 0.0\nsamples = 1\nvalue = 73.0"] ;
208 -> 209 ;
210 [label="day <= 14.0\nsquared_error = 1.6\nsamples = 3\nvalue = 79.0"] ;
208 -> 210 ;
211 [label="squared_error = 0.0\nsamples = 1\nvalue = 81.0"] ;
210 -> 211 ;
212 [label="temp_1 <= 69.5\nsquared_error = 0.8\nsamples = 2\nvalue = 78.5"] ;
210 -> 212 ;
213 [label="squared_error = 0.0\nsamples = 1\nvalue = 77.0"] ;
212 -> 213 ;
214 [label="squared_error = 0.0\nsamples = 1\nvalue = 79.0"] ;
212 -> 214 ;
215 [label="temp_2 <= 69.5\nsquared_error = 13.3\nsamples = 18\nvalue = 73.6"] ;
207 -> 215 ;
216 [label="day <= 22.5\nsquared_error = 5.0\nsamples = 3\nvalue = 69.2"] ;
215 -> 216 ;
217 [label="temp_2 <= 67.0\nsquared_error = 0.2\nsamples = 2\nvalue = 66.5"] ;
216 -> 217 ;
218 [label="squared_error = 0.0\nsamples = 1\nvalue = 66.0"] ;
217 -> 218 ;
219 [label="squared_error = 0.0\nsamples = 1\nvalue = 67.0"] ;
217 -> 219 ;
220 [label="squared_error = 0.0\nsamples = 1\nvalue = 71.0"] ;
216 -> 220 ;
221 [label="day <= 19.0\nsquared_error = 9.0\nsamples = 15\nvalue = 74.8"] ;
215 -> 221 ;
222 [label="day <= 13.5\nsquared_error = 3.8\nsamples = 7\nvalue = 76.4"] ;
221 -> 222 ;
223 [label="temp_2 <= 72.0\nsquared_error = 1.4\nsamples = 5\nvalue = 75.6"] ;
222 -> 223 ;
224 [label="day <= 12.0\nsquared_error = 0.2\nsamples = 2\nvalue = 74.5"] ;
223 -> 224 ;
225 [label="squared_error = 0.0\nsamples = 1\nvalue = 74.0"] ;
224 -> 225 ;
226 [label="squared_error = 0.0\nsamples = 1\nvalue = 75.0"] ;
224 -> 226 ;
227 [label="temp_1 <= 71.5\nsquared_error = 1.2\nsamples = 3\nvalue = 76.0"] ;
223 -> 227 ;
228 [label="squared_error = 0.0\nsamples = 1\nvalue = 74.0"] ;
227 -> 228 ;
229 [label="temp_2 <= 73.5\nsquared_error = 0.2\nsamples = 2\nvalue = 76.5"] ;
227 -> 229 ;
230 [label="squared_error = 0.0\nsamples = 1\nvalue = 76.0"] ;
229 -> 230 ;
231 [label="squared_error = 0.0\nsamples = 1\nvalue = 77.0"] ;
229 -> 231 ;
232 [label="temp_2 <= 75.0\nsquared_error = 0.2\nsamples = 2\nvalue = 79.5"] ;
222 -> 232 ;
233 [label="squared_error = 0.0\nsamples = 1\nvalue = 79.0"] ;
232 -> 233 ;
234 [label="squared_error = 0.0\nsamples = 1\nvalue = 80.0"] ;
232 -> 234 ;
235 [label="temp_2 <= 72.0\nsquared_error = 9.0\nsamples = 8\nvalue = 73.3"] ;
221 -> 235 ;
236 [label="temp_1 <= 75.5\nsquared_error = 10.9\nsamples = 2\nvalue = 75.3"] ;
235 -> 236 ;
237 [label="squared_error = 0.0\nsamples = 1\nvalue = 80.0"] ;
236 -> 237 ;
238 [label="squared_error = 0.0\nsamples = 1\nvalue = 73.0"] ;
236 -> 238 ;
239 [label="temp_1 <= 74.5\nsquared_error = 5.7\nsamples = 6\nvalue = 72.4"] ;
235 -> 239 ;
240 [label="day <= 26.5\nsquared_error = 1.0\nsamples = 3\nvalue = 74.0"] ;
239 -> 240 ;
241 [label="squared_error = 0.0\nsamples = 2\nvalue = 75.0"] ;
240 -> 241 ;
242 [label="squared_error = 0.0\nsamples = 1\nvalue = 73.0"] ;
240 -> 242 ;
243 [label="day <= 30.5\nsquared_error = 4.2\nsamples = 3\nvalue = 70.3"] ;
239 -> 243 ;
244 [label="temp_2 <= 76.0\nsquared_error = 1.0\nsamples = 2\nvalue = 69.0"] ;
243 -> 244 ;
245 [label="squared_error = 0.0\nsamples = 1\nvalue = 68.0"] ;
244 -> 245 ;
246 [label="squared_error = 0.0\nsamples = 1\nvalue = 70.0"] ;
244 -> 246 ;
247 [label="squared_error = 0.0\nsamples = 1\nvalue = 73.0"] ;
243 -> 247 ;
248 [label="month <= 5.5\nsquared_error = 45.6\nsamples = 19\nvalue = 79.6"] ;
176 -> 248 ;
249 [label="temp_2 <= 79.0\nsquared_error = 61.8\nsamples = 6\nvalue = 74.0"] ;
248 -> 249 ;
250 [label="temp_1 <= 84.5\nsquared_error = 47.0\nsamples = 4\nvalue = 69.6"] ;
249 -> 250 ;
251 [label="day <= 11.0\nsquared_error = 0.9\nsamples = 2\nvalue = 64.3"] ;
250 -> 251 ;
252 [label="squared_error = 0.0\nsamples = 1\nvalue = 63.0"] ;
251 -> 252 ;
253 [label="squared_error = 0.0\nsamples = 1\nvalue = 65.0"] ;
251 -> 253 ;
254 [label="temp_1 <= 88.0\nsquared_error = 12.2\nsamples = 2\nvalue = 77.5"] ;
250 -> 254 ;
255 [label="squared_error = 0.0\nsamples = 1\nvalue = 74.0"] ;
254 -> 255 ;
256 [label="squared_error = 0.0\nsamples = 1\nvalue = 81.0"] ;
254 -> 256 ;
257 [label="month <= 4.5\nsquared_error = 0.2\nsamples = 2\nvalue = 81.3"] ;
249 -> 257 ;
258 [label="squared_error = 0.0\nsamples = 1\nvalue = 81.0"] ;
257 -> 258 ;
259 [label="squared_error = 0.0\nsamples = 1\nvalue = 82.0"] ;
257 -> 259 ;
260 [label="temp_2 <= 75.5\nsquared_error = 28.2\nsamples = 13\nvalue = 81.3"] ;
248 -> 260 ;
261 [label="day <= 19.0\nsquared_error = 13.5\nsamples = 6\nvalue = 77.5"] ;
260 -> 261 ;
262 [label="day <= 9.0\nsquared_error = 7.9\nsamples = 5\nvalue = 75.8"] ;
261 -> 262 ;
263 [label="temp_2 <= 73.0\nsquared_error = 3.0\nsamples = 2\nvalue = 78.0"] ;
262 -> 263 ;
264 [label="squared_error = 0.0\nsamples = 1\nvalue = 75.0"] ;
263 -> 264 ;
265 [label="squared_error = 0.0\nsamples = 1\nvalue = 79.0"] ;
263 -> 265 ;
266 [label="temp_1 <= 78.0\nsquared_error = 2.8\nsamples = 3\nvalue = 73.5"] ;
262 -> 266 ;
267 [label="squared_error = 0.0\nsamples = 1\nvalue = 75.0"] ;
266 -> 267 ;
268 [label="day <= 16.5\nsquared_error = 1.0\nsamples = 2\nvalue = 72.0"] ;
266 -> 268 ;
269 [label="squared_error = 0.0\nsamples = 1\nvalue = 71.0"] ;
268 -> 269 ;
270 [label="squared_error = 0.0\nsamples = 1\nvalue = 73.0"] ;
268 -> 270 ;
271 [label="squared_error = 0.0\nsamples = 1\nvalue = 82.0"] ;
261 -> 271 ;
272 [label="day <= 18.0\nsquared_error = 20.5\nsamples = 7\nvalue = 84.1"] ;
260 -> 272 ;
273 [label="day <= 12.5\nsquared_error = 2.0\nsamples = 3\nvalue = 87.4"] ;
272 -> 273 ;
274 [label="month <= 7.0\nsquared_error = 0.2\nsamples = 2\nvalue = 86.7"] ;
273 -> 274 ;
275 [label="squared_error = 0.0\nsamples = 1\nvalue = 86.0"] ;
274 -> 275 ;
276 [label="squared_error = 0.0\nsamples = 1\nvalue = 87.0"] ;
274 -> 276 ;
277 [label="squared_error = 0.0\nsamples = 1\nvalue = 90.0"] ;
273 -> 277 ;
278 [label="temp_2 <= 84.5\nsquared_error = 5.3\nsamples = 4\nvalue = 79.0"] ;
272 -> 278 ;
279 [label="day <= 27.0\nsquared_error = 2.6\nsamples = 3\nvalue = 78.2"] ;
278 -> 279 ;
280 [label="squared_error = 0.0\nsamples = 2\nvalue = 79.0"] ;
279 -> 280 ;
281 [label="squared_error = 0.0\nsamples = 1\nvalue = 75.0"] ;
279 -> 281 ;
282 [label="squared_error = 0.0\nsamples = 1\nvalue = 83.0"] ;
278 -> 282 ;
}